%YAML:1.0
---
test: !!opencv-object-detector-hog
   winSize: [ 64, 128 ]
   blockSize: [ 16, 16 ]
   blockStride: [ 8, 8 ]
   cellSize: [ 8, 8 ]
   nbins: 9
   derivAperture: 1
   winSigma: 4.
   histogramNormType: 0
   L2HysThreshold: 2.0000000000000001e-01
   gammaCorrection: 1
   nlevels: 64
   signedGradient: 0
   SVMDetector: [ 2.73057912e-02, -2.59916354e-02, -2.88608465e-02,
       1.16267928e-03, 3.63866314e-02, -4.88264806e-04, -4.03065383e-02,
       -4.44508940e-02, 3.39977331e-02, 2.00735796e-02, -2.33441368e-02,
       1.81710366e-02, 2.36231983e-02, -6.05513761e-03, 5.68584315e-02,
       -2.19398681e-02, -1.65404342e-02, 3.46779488e-02, 3.04346215e-02,
       2.25009564e-02, 4.29140264e-03, 1.95944346e-02, 2.33670715e-02,
       2.23074108e-02, -2.96960808e-02, -3.77484895e-02, 9.70642827e-03,
       1.59832351e-02, -4.14838549e-03, -1.96168330e-02, 3.48843895e-02,
       -2.43033338e-02, 5.14227897e-02, -3.13909948e-02, 8.81740917e-03,
       1.27194142e-02, 1.01908355e-03, -4.24130931e-02, -7.68128270e-03,
       -2.86019151e-03, 3.95606756e-02, 3.88265401e-02, -3.88429355e-04,
       1.02747679e-02, 1.53797027e-02, 1.77628715e-02, -3.15774083e-02,
       -1.87421478e-02, 3.30598257e-03, 1.90294813e-02, 1.29561033e-02,
       2.91858870e-03, 1.48800034e-02, 2.23641619e-02, 2.27467511e-02,
       -2.84947082e-02, -1.58484168e-02, 2.79381368e-02, 1.63382888e-02,
       1.44898854e-02, 1.23060197e-02, 2.47344822e-02, 2.26596147e-02,
       -1.97361596e-02, -5.59435114e-02, -1.24726454e-02, 3.60626681e-03,
       -2.23277789e-02, -1.84997413e-02, 7.11445790e-03, 2.87513807e-02,
       2.45354157e-02, -2.64955079e-03, 4.81997384e-03, 4.72484045e-02,
       2.62007415e-02, 1.20628683e-03, -3.25689279e-02, -5.99362282e-03,
       -1.49467848e-02, 1.58095676e-02, 2.25299038e-03, 5.96238635e-02,
       5.28953224e-02, 1.72951333e-02, 5.25762737e-02, -2.60252692e-02,
       -2.86086816e-02, -4.31635156e-02, -2.71744858e-02,
       -3.46668102e-02, 7.04383128e-04, 7.86157399e-02, 6.08239584e-02,
       -1.38891172e-02, -2.24010758e-02, -5.92020107e-03,
       -8.93515442e-03, 8.69741011e-03, -2.44837683e-02, 1.18640969e-02,
       6.76517189e-02, 1.55998664e-02, 1.05559751e-02, -5.46690561e-02,
       -4.05672640e-02, -2.94850990e-02, -4.21925373e-02, 5.94606176e-02,
       1.26129717e-01, 2.09476240e-02, -1.50695071e-02, -8.73075612e-03,
       -2.51217764e-02, -2.13590786e-02, -2.12783236e-02,
       -1.73281990e-02, 4.67454456e-02, 3.49575840e-02, -7.27964938e-02,
       -4.69508395e-02, -2.41894834e-03, -7.03517534e-03,
       -2.46701743e-02, -2.96716448e-02, -3.61543521e-02, 3.67011502e-03,
       6.41372055e-02, 2.72307508e-02, -3.79925445e-02, -2.05947664e-02,
       -3.40528078e-02, 5.09719457e-03, -9.19548143e-03, -3.67543846e-02,
       8.97761993e-03, 2.35215966e-02, -4.15594280e-02, -6.41938448e-02,
       -5.60276769e-03, -5.10979723e-03, -1.03590004e-02,
       -1.68037172e-02, -3.62161472e-02, 4.01551761e-02, 4.32496667e-02,
       -4.34256010e-02, -3.43980640e-02, 4.38813679e-03, -2.62865890e-03,
       -8.84769391e-03, -1.01883977e-03, -3.09739169e-02, 1.21024000e-02,
       4.29286025e-02, -3.63074727e-02, -2.15839222e-02, 3.61465942e-03,
       1.22059304e-02, -8.87608901e-03, -1.90280341e-02, -3.99866961e-02,
       1.36496220e-02, 2.89603118e-02, -1.71194319e-02, -2.64647659e-02,
       2.47331299e-02, 6.15355838e-03, 8.23039468e-03, 8.73519946e-03,
       -2.99527720e-02, 1.06889587e-02, 3.41462307e-02, -2.88710603e-03,
       -1.05076823e-02, -3.20613850e-04, -1.09558282e-02, 1.09658614e-02,
       -9.99647193e-03, -2.77262907e-02, 5.35013212e-04, 2.98050623e-02,
       -2.08774228e-02, -2.47474927e-02, 3.27436067e-02, 7.99519569e-03,
       2.42862920e-03, 8.41329619e-03, -4.61530872e-03, 2.56008673e-02,
       2.53345780e-02, -1.07255783e-02, 1.22686047e-02, 2.87228939e-03,
       -6.73101225e-04, 8.16964265e-03, 2.56261006e-02, 2.35750247e-03,
       4.56832070e-03, 1.65336821e-02, 1.36324891e-03, -1.78479627e-02,
       2.44049598e-02, 2.09527300e-03, 2.11838465e-02, -6.35462860e-03,
       -1.28907841e-02, -2.97714863e-03, 6.05724705e-03, -4.35560988e-03,
       7.95527920e-03, -1.40435761e-03, 1.73085276e-02, 1.45019889e-02,
       -1.73578709e-02, -2.68110284e-03, 2.86711883e-02, 3.94587629e-02,
       -5.21360664e-03, -1.09042060e-02, -4.54946468e-03,
       -8.09525663e-04, 1.17824217e-02, 2.96000205e-02, 1.23411985e-02,
       5.25150523e-02, 3.32403667e-02, -1.31919952e-02, -3.14204246e-02,
       -2.48621069e-02, -2.56825574e-02, -2.84853368e-03, 2.00764444e-02,
       1.25135751e-02, 1.44273518e-02, 3.28142941e-02, 1.64738353e-02,
       -1.41925644e-02, 1.54891554e-02, 8.13578349e-03, 1.66030023e-02,
       -3.79470002e-04, 6.01783767e-03, -9.07646958e-03, 1.82651803e-02,
       -6.18892582e-03, -1.24010798e-02, 9.71255079e-03, 9.87726357e-03,
       3.41843435e-04, -1.10189626e-02, -2.07337681e-02, 2.96142325e-02,
       3.60631682e-02, -3.45332804e-03, -4.74332049e-02, -2.10487619e-02,
       -4.82550589e-03, 2.66763452e-03, 2.64753159e-02, 2.17014644e-02,
       1.66156702e-02, 1.73045862e-02, -2.07952457e-03, -5.04022650e-02,
       2.38097683e-02, 1.44789582e-02, 3.51928466e-04, 4.21471335e-02,
       -3.70443286e-03, 4.81874542e-03, 1.03322659e-02, 7.44260440e-04,
       -3.32654384e-03, -3.26209217e-02, 9.02387872e-03, -1.63772292e-02,
       -5.85645111e-03, 1.31270150e-03, 1.47663252e-02, 1.24899568e-02,
       1.19203981e-02, 7.08134193e-03, 3.46149411e-03, 1.58526171e-02,
       8.90597142e-03, 1.24562392e-02, 1.81190167e-02, 1.31222671e-02,
       -2.47600814e-03, -1.58723053e-02, -1.98945180e-02, 1.43253813e-02,
       2.24123169e-02, 4.00510058e-03, 2.99563222e-02, -1.00774113e-02,
       2.02914979e-02, 4.75926930e-03, -1.97990611e-02, 1.68382730e-02,
       3.16450074e-02, -2.65922653e-03, -1.04597406e-02, 1.67705528e-02,
       -9.21738055e-03, 3.37154120e-02, 2.76044142e-02, -1.02675548e-02,
       9.07512289e-03, 9.73387156e-03, 1.97904985e-02, 1.15569839e-02,
       1.43987006e-02, 1.91771872e-02, 6.97284332e-03, -2.98337406e-03,
       -1.89240985e-02, 1.63828004e-02, -7.36059621e-03, -4.62362031e-03,
       8.31494166e-04, -1.70567815e-04, -3.06792953e-03, 7.00332271e-03,
       -8.10233038e-03, -6.29976839e-02, 1.55266263e-02, 7.42544373e-03,
       3.52544524e-03, 1.42685585e-02, 2.72144657e-02, 1.42891435e-02,
       -1.49275437e-02, -3.11797336e-02, -4.98537384e-02, 2.90362313e-02,
       2.99098920e-02, 2.76316646e-02, 2.47260630e-02, 7.06772320e-03,
       -6.88819261e-03, -7.56823085e-03, -2.89495406e-03,
       -1.72844101e-02, 2.11568326e-02, -9.94025450e-03, 1.33543648e-03,
       -5.69081726e-03, 6.57387218e-03, 2.90533770e-02, -2.58715637e-02,
       -1.99933425e-02, -5.56228496e-03, 7.38297962e-03, 2.79437713e-02,
       -4.27413173e-03, -5.35032973e-02, -1.87505893e-02, 1.59753356e-02,
       -3.12094800e-02, -2.21670438e-02, -3.17418650e-02, 3.21716182e-02,
       5.01409620e-02, 1.99182704e-02, -6.05058158e-03, 8.16357508e-03,
       -3.30786556e-02, -1.41510125e-02, -1.43655799e-02,
       -2.36873627e-02, 9.75664891e-03, 3.72133180e-02, 2.63289604e-02,
       -8.82060360e-03, -8.21179803e-03, -2.42215209e-02,
       -1.24894932e-03, 1.82686634e-02, 6.17633015e-03, 4.06121314e-02,
       2.63747368e-02, 3.20541985e-05, -3.57720852e-02, -1.28579196e-02,
       1.03017837e-02, -4.62754536e-03, 2.59058569e-02, -1.56843307e-04,
       2.05824804e-02, 1.00098308e-02, -1.06610740e-02, -1.76443402e-02,
       -1.00961821e-02, 1.63796358e-02, -2.63351835e-02, -1.50552737e-02,
       -4.48366031e-02, -1.86691768e-02, 2.35682577e-02, 2.63550989e-02,
       7.47572444e-03, -1.20633943e-02, -1.55656803e-02, 1.25508113e-02,
       2.29021963e-02, -3.50793526e-02, -3.41558945e-04, 2.91398019e-02,
       2.60426700e-02, -2.48270780e-02, -2.98264399e-02, -2.30529141e-02,
       2.87043694e-02, 4.20925766e-02, -1.14472006e-02, -2.05453597e-02,
       -1.51574537e-02, -1.27953489e-03, -9.07523092e-03,
       -5.05837332e-03, 7.44769163e-03, 4.31184210e-02, 1.96177345e-02,
       -1.04087703e-02, -1.30632531e-03, -1.23937102e-02, 4.07322077e-05,
       -5.39077260e-02, -7.20407348e-03, 1.32599706e-02, -1.48231173e-02,
       2.58080903e-02, -2.52859425e-02, 2.11340785e-02, 4.33061607e-02,
       2.23315302e-02, -3.09404582e-02, -1.87187623e-02, -5.42216115e-02,
       -1.00879269e-02, 2.03760155e-02, -9.55771655e-03, 5.76096354e-03,
       2.02524140e-02, -9.97212064e-03, -3.89869176e-02, -4.95981239e-02,
       -7.52000213e-02, 4.74229008e-02, 3.79936844e-02, -2.31267624e-02,
       -5.45457529e-04, 1.06762713e-02, 2.57413182e-02, -1.72963757e-02,
       1.77267659e-02, 1.75516177e-02, -1.25256216e-03, 4.58838753e-02,
       -1.33586274e-02, -3.25909653e-03, 1.07840458e-02, -8.90763069e-04,
       -2.97042616e-02, 5.29913977e-03, -1.98824070e-02, -1.57984206e-03,
       8.09623487e-03, -2.77882554e-02, -6.66848617e-03, 1.98428873e-02,
       -2.54883505e-02, -4.90620211e-02, -5.84982708e-02,
       -4.66583297e-02, -1.01231458e-02, -6.72125351e-03,
       -3.66584547e-02, -2.40716804e-02, -4.12334949e-02,
       -4.46386664e-04, -7.68514862e-03, -4.67103086e-02,
       -3.52795795e-02, 1.49141345e-02, 3.37613821e-02, -1.03358561e-02,
       3.52200586e-03, 4.58317511e-02, 1.47125032e-02, -1.17972353e-02,
       -5.93515579e-03, -1.30920233e-02, -2.68507320e-02, 1.20296339e-02,
       -1.21569298e-02, -1.38955656e-02, 1.19992038e-02, 2.33490057e-02,
       3.26777175e-02, 2.18466781e-02, -1.41444178e-02, 9.39629879e-03,
       -1.40000908e-02, -2.81706620e-02, -3.49778868e-02,
       -1.92515310e-02, -6.36500865e-03, 1.00459754e-02, -1.22370152e-02,
       -4.18636994e-03, -6.79138526e-02, -4.37000543e-02,
       -1.51278321e-02, 1.44617716e-02, -3.08833495e-02, 4.35698889e-02,
       -2.98588770e-04, -1.37062408e-02, -4.06189673e-02, 1.25400564e-02,
       1.56910010e-02, 1.57638770e-02, 9.41422884e-04, 4.59834412e-02,
       3.05219851e-02, 3.64310667e-02, 1.54183730e-02, 1.24231214e-02,
       -1.31590432e-02, 2.17508897e-02, 4.79717329e-02, 4.88309637e-02,
       3.02109905e-02, 3.54927480e-02, 7.95674417e-03, 1.99800311e-03,
       -2.52466481e-02, 3.64165641e-02, 2.99617462e-02, 5.85279753e-03,
       2.48902552e-02, 2.13999674e-03, -1.50368847e-02, -3.08640804e-02,
       -5.56359813e-02, -1.03725530e-02, 3.67728397e-02, 1.91557803e-03,
       -2.79611237e-02, -7.61752017e-03, -2.08188854e-02, 7.95337558e-03,
       -2.54112687e-02, -6.55607926e-03, 2.27467213e-02, 2.55442988e-02,
       4.93173860e-02, 2.55371630e-02, 6.66563958e-02, -1.62407197e-02,
       -4.16134298e-02, -1.80416834e-02, -2.65360996e-02,
       -3.58795226e-02, 2.30761115e-02, 7.88360927e-03, -9.54142399e-03,
       -4.13962379e-02, -5.63420914e-02, -2.27521956e-02,
       -9.32219336e-05, 3.20340544e-02, -4.73930454e-03, 1.54519090e-02,
       -3.73305865e-02, -1.85748413e-02, -9.72279720e-03, 2.88169701e-02,
       -9.68184322e-03, 3.96102201e-03, 2.21803319e-02, 2.55215559e-02,
       4.00484633e-03, -5.86812235e-02, 1.94388181e-02, 5.88905625e-02,
       3.86091769e-02, -5.99019928e-03, -1.38808126e-02, -4.76962281e-03,
       3.59066837e-02, 2.77138017e-02, -1.39720850e-02, 1.39966104e-02,
       -6.77657838e-04, 7.74339540e-04, -2.97187231e-02, 8.32765922e-03,
       4.41762507e-02, 1.58328507e-02, -1.73202194e-02, -6.18203208e-02,
       4.07492369e-02, 3.66210118e-02, 1.28361722e-02, -1.37750516e-02,
       2.83698598e-03, 5.39307483e-03, 1.83397681e-02, -2.51697246e-02,
       1.36578368e-04, 9.17037576e-02, 1.12408042e-01, 2.16966961e-02,
       -1.82494409e-02, -3.31831239e-02, -3.59285139e-02,
       -1.05230836e-02, -3.72478031e-02, 7.41987117e-03, 6.19967505e-02,
       3.45056579e-02, -7.26154540e-03, -5.39707802e-02, -2.96710711e-02,
       -4.77341227e-02, -4.84973118e-02, 3.64615535e-03, -2.29450967e-02,
       1.01978146e-01, 9.54617113e-02, 8.97369988e-04, 2.47852644e-03,
       -8.74574389e-03, -4.08992358e-02, -1.34271011e-03,
       -1.44015234e-02, -1.36598507e-02, -9.02979728e-03,
       -3.09340376e-02, 1.94097944e-02, -2.75940858e-02, -3.83717418e-02,
       -7.47577846e-02, -2.86348574e-02, 5.79651271e-04, 6.49040639e-02,
       5.07719778e-02, -8.95508844e-03, -2.66834144e-02, -2.70967260e-02,
       2.26562899e-02, -7.11251330e-03, -2.77890079e-02, 1.14761144e-02,
       6.71244413e-02, -5.20777935e-03, -4.32051271e-02, -5.21517396e-02,
       6.13504136e-03, 1.23569602e-02, 2.54529761e-04, -1.60402451e-02,
       -8.11142288e-03, 6.65856525e-02, 3.47905606e-02, -2.57701278e-02,
       -4.03446779e-02, -2.52454299e-02, 1.12409461e-02, -2.25599464e-02,
       -2.20263898e-02, 6.37547718e-03, 4.31230217e-02, -1.11182537e-02,
       -3.66279706e-02, -1.76238865e-02, -1.06309643e-02,
       -6.42989203e-03, -4.39797994e-03, 2.65783425e-02, -3.11019016e-06,
       6.62779883e-02, 2.36687735e-02, -3.48161608e-02, -1.23979254e-02,
       -3.40404571e-03, 1.36510294e-03, 2.16306075e-02, -8.17491207e-03,
       4.44401754e-03, 5.71723059e-02, 3.19399908e-02, -4.23108228e-03,
       -1.47854174e-02, -1.48646235e-02, 1.49182472e-02, 2.38791965e-02,
       -3.42552387e-03, 4.48826840e-03, 4.34641689e-02, 4.61308798e-03,
       -3.62491682e-02, -7.40582822e-03, -4.08974290e-03,
       -7.70610152e-03, 3.12106591e-03, 3.53358127e-02, -1.35441739e-02,
       -2.20868345e-02, -1.81874372e-02, -4.15127650e-02,
       -1.15753552e-02, -1.82538684e-02, -6.92149764e-03, 1.09489309e-02,
       -4.53482848e-03, 3.19014974e-02, 4.83296067e-02, 3.69913951e-02,
       -8.72062705e-03, 8.53941310e-03, -6.74285600e-03, 3.01476084e-02,
       1.53536070e-02, 1.03189014e-02, 3.16130486e-03, 4.67216708e-02,
       2.15736162e-02, -3.74154672e-02, -1.96984485e-02, 3.55861685e-03,
       2.63588559e-02, 1.01033635e-02, -9.04782675e-03, -3.60683491e-03,
       6.90996973e-03, 4.90195164e-03, -2.78144367e-02, -1.04268873e-02,
       -2.93419454e-02, 1.14018209e-02, 8.65234528e-03, 9.77692427e-04,
       -1.59972589e-02, 1.05747383e-03, 5.90001047e-03, -6.20193519e-02,
       -1.75510999e-02, -4.12118323e-02, 4.54125134e-03, 2.57119094e-03,
       -3.72714107e-03, 1.95231522e-03, 4.55083922e-02, 2.32969299e-02,
       -3.91215645e-02, 3.99442054e-02, 3.38344984e-02, 2.44962107e-02,
       -5.11964411e-03, -9.23487823e-03, 3.49410274e-03, 6.80900812e-02,
       3.66793349e-02, -3.81606561e-03, -1.90023473e-03, -1.20799674e-03,
       -8.19680467e-03, -2.61601135e-02, -3.21116894e-02,
       -5.86952176e-03, 1.74419340e-02, -1.05220256e-02, -6.35567904e-02,
       1.06687648e-02, 1.90653149e-02, 1.43805528e-02, -4.17305436e-03,
       -1.25972647e-02, 3.16129886e-02, 2.42903084e-02, -3.17472965e-04,
       -4.10759188e-02, -3.51454355e-02, -2.07600743e-02,
       -1.39491018e-02, -2.94272713e-02, -1.60359684e-03, 1.89321619e-02,
       5.36609590e-02, 3.30152437e-02, 2.02013273e-02, -5.09447977e-03,
       1.12720020e-02, 7.91844446e-03, 1.95271857e-02, -8.38726293e-03,
       1.74910817e-02, 3.33933271e-02, 4.40570246e-03, 1.52026415e-02,
       6.51125051e-03, 2.25182828e-02, 3.13347727e-02, 1.50994807e-02,
       2.22189655e-03, 2.01870780e-02, 1.58507880e-02, 9.55025293e-03,
       -1.11903623e-02, -5.15612228e-05, -2.12286506e-02, 1.23684350e-02,
       -1.34600271e-02, -1.26858335e-02, -8.52656085e-03,
       -4.44683135e-02, -4.46075685e-02, -1.58619639e-02,
       -5.97743271e-03, -1.86086036e-02, 5.70264040e-03, 5.07477147e-04,
       -3.19077924e-04, 2.08148686e-03, 3.26881930e-02, 1.36051455e-03,
       -4.48541529e-03, 1.20675331e-02, 2.70567536e-02, 3.02211791e-02,
       2.85328291e-02, 2.56777517e-02, -1.96753778e-02, -4.42580646e-03,
       -2.36139782e-02, 6.01316942e-03, -9.76695400e-03, 1.26149487e-02,
       1.52845513e-02, 3.64981331e-02, 1.76222362e-02, 7.68237002e-03,
       -3.36524732e-02, -2.50084791e-02, -4.15619425e-02,
       -2.81676860e-03, -1.11417649e-02, 1.91056151e-02, 3.82970572e-02,
       2.45791879e-02, -3.82087426e-03, -3.85872647e-02, -1.62243247e-02,
       -1.20473281e-02, -7.72292027e-04, -9.13584605e-03,
       -3.73065062e-02, 3.02891191e-02, 3.10727768e-02, -2.18455177e-02,
       1.20625151e-02, -1.32320514e-02, 2.95390282e-03, -4.63284319e-03,
       6.19512051e-03, 1.68717222e-03, 4.41612490e-02, 4.54951040e-02,
       -3.62525992e-02, 3.05544715e-02, 2.51884549e-03, 2.56814552e-03,
       -5.80527494e-03, -4.28548781e-03, -2.48572621e-02, 3.83436643e-02,
       -1.75319752e-03, 2.43944302e-03, -1.67689659e-03, -2.01154612e-02,
       -2.08105240e-02, -2.23684572e-02, 1.58638302e-02, 4.15380020e-03,
       4.94195037e-02, 3.21914069e-02, -9.87562351e-03, -1.00366853e-03,
       -1.42218471e-02, -2.35861167e-02, -4.05881256e-02, 9.94408410e-03,
       -1.42430328e-02, 4.68206890e-02, 1.95280965e-02, -6.64593466e-03,
       4.02874649e-02, -1.07587641e-02, -1.08483597e-03, -1.70367975e-02,
       -2.53273752e-02, -3.44603993e-02, 4.00804356e-02, 9.77166928e-03,
       5.46153961e-03, 4.56366055e-02, 8.61709379e-03, 2.98453961e-02,
       8.35260749e-03, -8.15392844e-03, 1.10933566e-02, 1.93268210e-02,
       2.74720485e-03, 1.60811581e-02, 2.21845023e-02, -4.24955264e-02,
       -1.29712438e-02, -3.12802196e-02, -1.51527058e-02,
       -2.32177135e-02, 4.76808101e-02, 1.65498741e-02, 3.84459528e-03,
       -5.99345705e-03, -3.69114876e-02, -1.14878286e-02,
       -1.75228389e-03, -2.67707668e-02, -9.63419583e-03, 4.07059155e-02,
       2.44181789e-02, -3.10901403e-02, 3.21130417e-02, -1.11119752e-03,
       6.93107955e-03, -2.64770929e-02, -1.94706116e-02, -1.59168802e-02,
       -5.53985941e-04, -1.45491576e-02, -2.28385869e-02, 2.21313667e-02,
       -8.16661923e-04, -1.34267928e-02, -3.72651145e-02,
       -1.19273784e-03, -3.24694663e-02, 1.66822616e-02, -2.99005420e-04,
       -1.67092569e-02, 1.26754986e-02, -2.75045149e-02, -9.06665344e-03,
       -6.09707134e-03, -2.89943535e-03, -8.02048296e-03, 7.58201256e-03,
       5.05478494e-03, -1.20416889e-02, 1.72013473e-02, -1.33624561e-02,
       -3.30993680e-05, -3.03373970e-02, -1.58079329e-05,
       -1.90837905e-02, -1.49176968e-02, -7.38039240e-03,
       -2.47720759e-02, 3.44464295e-02, -1.63805932e-02, -1.74547248e-02,
       -6.06517866e-03, 1.10715525e-02, -2.83475257e-02, 2.21034940e-02,
       2.64362374e-04, -3.73059846e-02, 4.05155383e-02, -8.63521826e-03,
       -2.81799734e-02, -6.28236309e-03, -1.06538758e-02,
       -1.50186550e-02, 2.28741113e-02, -1.74027085e-02, -2.07952410e-02,
       1.99328884e-02, -1.39275175e-02, -2.79792137e-02, -6.27139257e-03,
       -7.70212663e-03, -4.42163907e-02, -1.46133257e-02,
       -3.10312528e-02, -7.71241728e-03, 4.18342017e-02, 5.60361287e-03,
       3.24011990e-03, -2.28783786e-02, -2.26010084e-02, -3.37831341e-02,
       2.08285917e-02, -1.74547022e-03, -2.30635200e-02, 1.74637628e-03,
       -2.33454872e-02, -4.35733832e-02, -6.34653668e-04,
       -2.09084228e-02, -1.27380742e-02, -4.33273753e-03,
       -2.45838165e-02, -1.14560630e-02, 1.63412187e-02, -2.15001442e-02,
       -2.63758097e-02, -4.49932106e-02, 8.89913831e-03, 7.32919574e-03,
       1.60028115e-02, -1.46484980e-02, 1.07381037e-02, 3.15177217e-02,
       -1.63173899e-02, -1.72777828e-02, -2.30866931e-02,
       -1.14355581e-02, -1.16300909e-02, 2.96313521e-02, -1.44195498e-03,
       9.19171871e-05, 2.27735732e-02, -1.51383374e-02, 7.42074102e-03,
       -2.70518325e-02, 1.63468197e-02, -1.83266476e-02, 4.34463248e-02,
       -1.27871335e-02, -1.06783975e-02, 1.44861254e-03, 1.37524530e-02,
       -1.27664348e-02, -7.98422936e-03, -3.17435078e-02,
       -2.48596584e-03, -2.56059342e-03, -1.43149896e-02,
       -5.24061546e-02, -1.54908299e-02, 1.11950208e-02, 2.03947239e-02,
       -7.11125601e-03, -1.95620153e-02, -4.06998172e-02,
       -5.35834916e-02, -7.16583952e-02, -2.24127173e-02,
       -1.71749585e-03, 8.47842451e-03, 1.93629153e-02, 2.48866472e-02,
       -1.64635442e-02, -6.03841897e-03, 2.30088122e-02, -1.11931926e-02,
       -1.63948853e-02, 1.60429738e-02, 2.83547435e-02, 3.29902433e-02,
       1.30946022e-02, 3.64712887e-02, -4.42905264e-04, -1.82050522e-02,
       -3.35367247e-02, 1.64077859e-02, 4.26473431e-02, 5.94871603e-02,
       7.87016824e-02, 2.27530636e-02, -3.32671106e-02, -4.18954343e-02,
       -4.87298369e-02, -4.01162878e-02, 2.52800249e-02, -8.37651640e-03,
       6.90238737e-03, -1.55978871e-03, 1.14958175e-03, -1.46989748e-02,
       1.01210559e-02, 2.64462549e-02, 3.37219704e-03, -1.66325886e-02,
       5.44571206e-02, 8.14841688e-02, 7.01232627e-02, 4.96373363e-02,
       -1.55483792e-02, -4.51318249e-02, -7.56128952e-02,
       -3.81810442e-02, 2.84345658e-03, -2.37227883e-03, -1.39504084e-02,
       -6.64602593e-03, -1.73864979e-02, -1.25289001e-02, 2.25135442e-02,
       1.86564084e-02, 9.51731391e-03, 1.13691771e-02, -2.51855776e-02,
       1.05553260e-02, -3.98290576e-03, 6.98101427e-03, -4.13577929e-02,
       3.01964972e-02, 6.37285337e-02, 3.32892239e-02, -1.65615492e-02,
       -2.01821998e-02, 5.57609089e-02, 2.67324466e-02, -9.87239275e-03,
       -2.33441498e-02, 9.28624161e-03, -3.03629611e-04, -1.40734510e-02,
       3.00547183e-02, 6.72281021e-03, -3.28104035e-03, 1.09730279e-02,
       4.32213806e-02, -4.57368838e-03, 4.46673222e-02, 4.20449115e-02,
       3.04332078e-02, 2.94812932e-03, -1.83718652e-02, 1.53367147e-02,
       -1.61186960e-02, 1.88908037e-02, -8.10637418e-03, 2.59653735e-03,
       -1.94703427e-03, -2.10204627e-02, -2.00688876e-02,
       -2.86855921e-02, 8.55659992e-02, 6.93860278e-02, -2.18062419e-02,
       2.24453658e-02, 5.56047354e-03, -3.51085551e-02, -1.33421887e-02,
       -1.73185468e-02, -2.18919013e-02, 1.52372094e-02, -3.47576141e-02,
       -2.83802190e-04, -1.24299638e-02, -2.19747331e-02,
       -2.88626701e-02, -1.91587955e-03, -3.20941061e-02,
       -4.33245301e-02, 4.96340804e-02, 2.98366137e-02, -4.50637154e-02,
       2.11167391e-02, 2.16704533e-02, 3.43770208e-03, -4.69808243e-02,
       -2.92902533e-02, -3.72662842e-02, 4.05904986e-02, -1.20543856e-02,
       -2.68923584e-02, -2.55885646e-02, -9.67714190e-03,
       -2.91115977e-02, -1.93433315e-02, -3.46922800e-02, 3.90141085e-02,
       3.85975651e-02, 4.19339724e-03, -4.82605956e-02, -5.27063105e-03,
       -3.58344871e-03, -1.58401355e-02, -4.33205031e-02,
       -2.57070418e-02, 1.77482851e-02, 1.82526968e-02, -9.40793660e-03,
       -1.02014830e-02, -6.49077864e-03, -8.23349785e-03, 2.97103403e-03,
       -1.32438829e-02, -1.20524243e-02, 2.82087177e-03, 1.46802561e-02,
       -9.48590320e-03, -3.31870802e-02, 1.67391989e-02, 1.39382845e-02,
       1.67615227e-02, -3.39719541e-02, -4.26778048e-02, -2.55770162e-02,
       -3.46510522e-02, -4.30287458e-02, -2.00850200e-02,
       -1.07714196e-03, 2.05557887e-02, 9.65601485e-03, -1.23693077e-02,
       -1.63212046e-02, 3.13648209e-02, 1.74695067e-02, -3.26488377e-03,
       1.18858488e-02, -1.37298740e-02, 1.18873967e-02, 1.38487043e-02,
       1.26450406e-02, -1.66544840e-02, 4.94793616e-03, -8.77172034e-03,
       -3.00866421e-02, -9.00936313e-03, -2.33861394e-02,
       -1.84800960e-02, 6.29826216e-04, -2.24485882e-02, -3.64425629e-02,
       1.80677865e-02, 2.09134091e-02, -3.16943787e-03, 1.42249297e-02,
       -2.87853414e-03, 4.14120592e-02, 1.96086466e-02, 4.29918244e-03,
       -1.68869980e-02, 9.32857115e-03, -1.97830200e-02, -9.57805105e-03,
       -1.17505798e-02, -3.96275893e-02, -1.84913352e-02,
       -2.74129659e-02, 7.92874023e-03, -4.21809079e-03, 2.15461273e-02,
       1.07005043e-02, 2.83440808e-04, -8.71715788e-03, -1.35424454e-02,
       -5.48793562e-03, 9.96146165e-03, -2.07917951e-02, -5.80261461e-03,
       3.79975475e-02, 2.46747565e-02, -1.37300696e-02, -1.89234857e-02,
       1.88577622e-02, 2.20491216e-02, -1.44847599e-03, -4.03505713e-02,
       1.26790255e-02, 2.15330161e-02, -1.59088299e-02, -1.81520451e-02,
       -5.18074399e-03, -9.87453479e-03, -9.77378432e-03, 1.70056697e-03,
       7.82807544e-03, -2.90859118e-02, -1.33888870e-02, -8.89352057e-03,
       -2.34244931e-02, -2.89565660e-02, 8.78878124e-03, 1.81064829e-02,
       -1.51573298e-02, -4.23516743e-02, -8.63744225e-03, 8.02820548e-03,
       1.36688296e-02, -2.32098140e-02, 4.58673760e-03, 4.39082943e-02,
       3.31264064e-02, 2.99024628e-03, -2.47806963e-02, 1.18820742e-03,
       -1.28497891e-02, -1.71343070e-02, -3.56155038e-02,
       -1.78781599e-02, 1.96469836e-02, 6.53866632e-03, -2.91626994e-02,
       -3.00888028e-02, -2.19718553e-03, -3.19947675e-02,
       -1.36001548e-02, -2.21513789e-02, 5.84752706e-04, 3.20209600e-02,
       2.01507118e-02, -2.34799683e-02, -1.53046995e-02, 1.24017056e-02,
       -3.00528053e-02, -4.56671976e-02, -4.77479491e-03, 8.71694926e-03,
       4.08705808e-02, 3.12455418e-03, -5.59843741e-02, -1.40183400e-02,
       -1.03772734e-03, -1.05539216e-02, -5.96044445e-03, 1.42781287e-02,
       3.10188867e-02, 1.44239934e-02, 6.06625015e-03, -3.79461795e-02,
       -3.95624004e-02, -2.56620441e-02, -6.22831807e-02,
       -5.35377525e-02, 1.00949761e-02, 1.31847318e-02, 1.96845923e-02,
       1.98804513e-02, 6.15347119e-04, -3.88544872e-02, 3.81387696e-02,
       -1.08466940e-02, -3.31492610e-02, 1.97728798e-02, -4.10497049e-03,
       2.11181175e-02, 1.23965386e-02, -3.04276515e-02, -2.18530837e-02,
       1.30946133e-02, -1.90028490e-03, -2.75476882e-03, 3.63391079e-02,
       1.00187128e-02, -8.06655642e-03, 2.26609763e-02, 1.85628934e-03,
       -1.53753050e-02, -1.24180047e-02, -4.10645269e-02, 3.10736988e-03,
       -9.33650136e-03, 3.60567458e-02, 1.65592022e-02, 2.73249615e-02,
       4.19832245e-02, -1.00999500e-03, -8.19580629e-03, -1.01690441e-02,
       1.42117888e-02, -8.41129944e-03, 4.67119031e-02, 1.41599011e-02,
       -2.27219239e-02, 6.74423948e-03, -4.57696384e-03, -1.50098158e-02,
       -1.65795255e-02, 2.30542105e-02, 2.32616365e-02, 4.03305739e-02,
       1.48561401e-02, 1.35713881e-02, 6.34507742e-03, -1.35015380e-02,
       -1.57378074e-02, 9.89605766e-03, 1.25075262e-02, 6.85055600e-03,
       3.06483414e-02, 7.12217577e-03, -1.02768000e-02, 1.10769365e-02,
       -2.90488582e-02, -1.56993940e-02, 1.41488547e-02, -2.28854734e-03,
       -1.92825906e-02, 1.45934541e-02, 2.81882100e-02, 6.63859025e-03,
       2.22796537e-02, -1.47534963e-02, -1.10421628e-02, 2.44572870e-02,
       -2.94101853e-02, -2.34681517e-02, -1.29629700e-02, 1.73368827e-02,
       2.34652171e-03, 4.66374159e-02, -2.19874475e-02, 7.32093991e-04,
       4.49589565e-02, 4.39194916e-03, -1.37168001e-02, -1.00727603e-02,
       1.91927198e-02, -9.26804263e-03, -9.13086289e-04, -2.16434076e-02,
       3.54925497e-03, 2.82152202e-02, 4.24050912e-03, -2.31467821e-02,
       -2.52155941e-02, -1.88099910e-02, -2.79804822e-02,
       -1.99937006e-03, -6.12125359e-03, -1.74294244e-02, 3.26365754e-02,
       -2.48121973e-02, -2.39123274e-02, 2.82880221e-03, -1.51635124e-03,
       -1.46086486e-02, 2.30295621e-02, 6.10109046e-03, -1.34429233e-02,
       1.77882165e-02, 6.10449212e-03, -3.35802287e-02, -3.50058335e-03,
       1.97214819e-03, -1.24157835e-02, -7.39328610e-03, -4.61878767e-03,
       1.34647219e-02, 4.23635431e-02, 8.79660808e-03, -2.71609314e-02,
       9.98778269e-04, -2.33695246e-02, -3.37000266e-02, -1.20607875e-02,
       -1.94760840e-02, 1.86948646e-02, 6.44883662e-02, 3.66320722e-02,
       -1.86365433e-02, -2.03573070e-02, -3.99418594e-03,
       -1.87112633e-02, -1.50380032e-02, -1.78987142e-02,
       -9.39681940e-03, 3.30453925e-02, 1.23823406e-02, -1.90229621e-02,
       -4.28782078e-03, 2.01413129e-03, -8.49161763e-03, -5.14876610e-03,
       -6.76724548e-03, -1.47663699e-02, 3.97857204e-02, -9.63408966e-03,
       -1.87692251e-02, -3.71287800e-02, -2.61650681e-02,
       -5.30166551e-03, 9.70064010e-03, -2.55265702e-02, -1.54611410e-03,
       4.74481806e-02, 2.45376620e-02, -1.44273397e-02, 7.00229639e-03,
       1.42431643e-03, 4.60798293e-03, -2.11195648e-02, -2.88552996e-02,
       -2.06560250e-02, 3.80437747e-02, 4.32102475e-03, -1.59135535e-02,
       1.35376258e-03, -7.52455834e-03, 1.85744353e-02, 1.73663981e-02,
       -1.71623554e-03, -2.75669154e-02, 5.02239205e-02, -2.48272624e-02,
       -4.21973541e-02, -7.64157344e-03, -2.54945233e-02,
       -3.08161229e-02, 3.03680785e-02, -4.26738858e-02, -1.02155320e-02,
       6.94275871e-02, -2.65035755e-03, -2.66716592e-02, -1.33084673e-02,
       -4.66960308e-04, -7.20487069e-03, 4.97591272e-02, -1.01019144e-02,
       -8.86239694e-04, 3.71956453e-02, -2.26849914e-02, -1.89153869e-02,
       -6.20306470e-03, -4.20052260e-02, -1.95137002e-02, 1.11526763e-03,
       -1.95224695e-02, 2.13685213e-03, 2.93658469e-02, -1.22272931e-02,
       -3.04515082e-02, -5.54752257e-03, -1.06514059e-02,
       -2.03156658e-02, 1.82492174e-02, 1.86963283e-04, -2.58444753e-02,
       4.82197441e-02, -1.26360422e-02, -2.67896987e-02, -1.18124485e-03,
       -3.22062261e-02, -2.05429103e-02, 1.35215903e-02, 2.45013414e-03,
       -4.72874939e-03, 3.00797354e-02, -9.27830022e-03, -5.25683304e-03,
       -4.58308645e-02, -2.71660145e-02, -1.04756737e-02, 3.07043251e-02,
       -2.04375815e-02, -1.27552077e-02, 2.12583560e-02, -2.05412731e-02,
       -2.55326219e-02, -1.29477922e-02, -2.21380591e-02,
       -9.56868101e-03, 1.16307028e-02, 2.27509383e-02, 2.20260886e-03,
       2.65420265e-02, 1.83842669e-03, -3.34174447e-02, -4.39425372e-02,
       -3.20835002e-02, -6.99002820e-04, 2.39304490e-02, 5.53989457e-03,
       -2.42758542e-02, 1.51039986e-02, 1.73174851e-02, -1.63743217e-02,
       -3.84489261e-02, -3.34437340e-02, -6.08346192e-03, 2.56385840e-02,
       -2.11564284e-02, -8.72705691e-03, 3.13962735e-02, 3.52424122e-02,
       1.99793875e-02, 4.82733455e-03, 3.19806561e-02, 2.82431655e-02,
       -2.69976212e-03, -3.35492007e-02, 1.19996220e-02, 2.01348625e-02,
       2.56967489e-02, -3.41047160e-02, 6.46222336e-03, -2.97458544e-02,
       2.19651754e-03, 7.02315569e-03, 2.29554065e-03, 4.80803847e-03,
       2.09340136e-02, 3.89067419e-02, 8.05526040e-03, -3.67097999e-03,
       2.36684689e-03, 3.47763412e-02, 1.01387482e-02, -1.32714808e-02,
       -5.08550294e-02, -2.89256941e-03, 3.74463610e-02, 8.50025043e-02,
       1.54694663e-02, 3.48490514e-02, -1.35281049e-02, -5.01230918e-02,
       -3.51393521e-02, -1.26684597e-02, -2.36870740e-02,
       -3.87141854e-02, 7.03929691e-03, 2.32058093e-02, 1.12405950e-02,
       6.33253308e-04, -9.13079269e-03, 2.67776544e-03, -6.46310523e-02,
       -7.64973015e-02, -3.21455076e-02, 3.87341380e-02, 1.58725139e-02,
       8.54147822e-02, 5.22372164e-02, 7.64015131e-04, -3.54350843e-02,
       -7.78882392e-03, -1.39025450e-02, -3.51155526e-03,
       -5.71528822e-03, -1.60374939e-02, 8.00962374e-03, 2.45676786e-02,
       7.07176328e-03, 4.07840963e-03, -4.47424129e-03, -1.92481484e-02,
       -1.90714877e-02, 1.62070170e-02, 2.46116072e-02, 2.67404653e-02,
       7.21430499e-03, 5.42054698e-03, 7.56297121e-03, -1.37560088e-02,
       -2.72997469e-02, 5.89527516e-03, 3.38863907e-03, -3.31759686e-04,
       -6.61925692e-03, 9.10400786e-03, 4.55486868e-03, -4.81637940e-03,
       1.46434447e-02, -6.35033892e-03, 1.04877250e-02, 1.74569972e-02,
       7.11295987e-03, 2.00349558e-02, 3.99912335e-03, -9.81798489e-03,
       2.72330549e-02, 1.92438904e-03, -1.99732464e-02, -6.92890072e-03,
       -1.83104053e-02, -7.14811776e-03, -3.35697532e-02,
       -1.53026506e-02, -4.03272957e-02, -3.39863444e-04,
       -4.03208919e-02, -2.72890124e-02, 4.61583659e-02, 4.16173786e-02,
       -5.03237708e-04, 4.16896939e-02, 2.58779041e-02, -7.69910868e-03,
       -4.29188721e-02, -1.77423153e-02, -1.63550060e-02, 9.88934189e-03,
       -2.38927677e-02, -1.46870855e-02, -1.24031315e-02, 6.87155686e-03,
       -1.87008362e-02, -2.66915783e-02, -5.88500267e-03,
       -1.86488517e-02, 2.87975278e-02, 4.40000976e-03, -1.79606378e-02,
       1.68849602e-02, 2.02201176e-02, -2.32723318e-02, -8.20058340e-04,
       -3.99285601e-03, -2.70415545e-02, -4.28934349e-03,
       -4.25748080e-02, 3.50104622e-03, -2.03458462e-02, 2.14642356e-03,
       -2.57721189e-02, -6.84965542e-03, 9.60891601e-03, 1.67724341e-02,
       1.16467709e-02, 6.92868998e-05, -2.23996211e-02, 3.21534686e-02,
       4.52503227e-02, 3.58757488e-02, -1.34078665e-02, -2.85571739e-02,
       -9.23520233e-03, -1.57571547e-02, -1.36267729e-02,
       -1.66917816e-02, -8.83834809e-03, 1.78484041e-02, 8.80865846e-03,
       -1.43615073e-02, -2.75974013e-02, 1.70059055e-02, 2.23271120e-02,
       -2.35269326e-04, -7.12576415e-03, 4.08993335e-03, 1.39195323e-02,
       1.27524631e-02, -3.18416953e-02, 3.99783952e-04, -1.10517871e-02,
       -8.96120444e-03, -1.85081027e-02, -3.05626001e-02,
       -5.09194583e-02, -2.13670917e-02, -3.64799658e-03, 1.35199737e-03,
       -2.50092708e-02, 1.34533811e-02, 2.53946502e-02, 3.26002687e-02,
       -2.93888059e-03, -4.12746379e-03, 1.53253274e-02, 1.50612649e-02,
       1.58377606e-02, 3.14712233e-04, 1.63043849e-02, 3.80495517e-03,
       1.64263565e-02, -3.18369828e-02, -1.12393117e-02, -2.02316307e-02,
       -5.11095347e-03, 1.76245905e-02, 1.41353216e-02, 2.67879316e-03,
       9.95962042e-03, 4.22271807e-03, -7.97757134e-03, -2.14662869e-02,
       -8.77666939e-03, 3.35929915e-03, 1.81685779e-02, -2.72883885e-02,
       -5.71292592e-03, -1.04992930e-02, -2.23541427e-02,
       -1.33595839e-02, 1.11529008e-02, -2.22742129e-02, -1.10580744e-02,
       -1.96681265e-02, 4.41055279e-03, 1.44519769e-02, 1.49093522e-02,
       -3.08613386e-03, 2.62722112e-02, 2.07254365e-02, 1.74530223e-02,
       1.52512370e-02, -2.49055843e-03, -1.14438934e-02, -6.41080784e-03,
       7.04623666e-03, 1.00672373e-03, -3.21416073e-02, 2.70754043e-02,
       2.88389251e-02, -1.65410258e-03, -1.89715028e-02, -1.84188094e-02,
       7.59035768e-03, 2.09346544e-02, -1.63371768e-02, -1.41490968e-02,
       1.40267396e-02, 7.81436544e-03, -1.07577825e-02, -3.98009717e-02,
       -1.20483094e-03, 2.92743631e-02, 3.20666693e-02, 2.91385148e-02,
       -5.06197847e-02, 1.13368398e-02, 2.50228290e-02, -9.06420220e-03,
       -2.32749861e-02, -1.29282773e-02, -2.02874653e-02,
       -6.63908839e-04, 5.68724750e-03, -5.12206554e-03, 1.08782174e-02,
       1.52580598e-02, -7.39093637e-03, -8.80735461e-03, -2.36994959e-03,
       -1.16560021e-02, -2.16855034e-02, 3.57778743e-02, 1.10430606e-02,
       9.62350052e-03, 1.19859418e-02, -2.27826592e-02, -1.31366076e-02,
       2.36883061e-04, -4.59101470e-03, 6.72662212e-03, 2.21664347e-02,
       -2.44653281e-02, 2.42046956e-02, 2.58567594e-02, -1.04673710e-02,
       -1.94533784e-02, -4.06512991e-03, -3.64712477e-02,
       -1.42948460e-02, 1.97050162e-02, 3.83741781e-03, 2.02867631e-02,
       1.20865842e-02, -7.49399839e-03, -2.52005178e-03, 1.87988989e-02,
       1.58477519e-02, -1.94682758e-02, 2.62747426e-02, 1.62932407e-02,
       1.69025362e-02, 1.76530518e-02, -6.67092111e-03, -2.02892348e-02,
       1.91812858e-03, 8.49605165e-03, 1.32808397e-02, 4.12098691e-02,
       1.07012168e-02, -6.25359826e-03, 1.57141574e-02, 1.14604570e-02,
       -2.28943862e-02, -1.63942035e-02, -1.90641657e-02,
       -1.78564209e-02, 2.93535125e-02, 4.09882367e-02, 1.45284757e-02,
       2.44342326e-03, -3.22288349e-02, -1.53058460e-02, -2.96165776e-02,
       -3.68202291e-02, 5.12513239e-03, 4.98394035e-02, 1.20430756e-02,
       2.60221735e-02, -1.71695519e-02, -3.30007784e-02, -3.21810022e-02,
       4.92745824e-03, 9.26518813e-03, 4.12193052e-02, 2.11032666e-02,
       3.35366875e-02, 1.00782774e-02, -5.52214356e-03, 1.49123454e-02,
       -6.96456875e-04, 1.04653705e-02, 3.53709124e-02, 2.03578640e-02,
       -1.90763548e-02, 1.26572410e-02, 2.82971933e-03, 2.03348836e-03,
       2.66324151e-02, 5.31461649e-03, 2.96820770e-03, -1.96355302e-03,
       1.90987792e-02, 3.13293077e-02, 2.80157235e-02, 6.71689445e-03,
       4.90281032e-03, 8.69566016e-03, -7.22968252e-05, 4.33585234e-02,
       4.25124802e-02, -7.15978094e-04, -2.88532507e-02, 1.33913308e-02,
       -8.84218048e-03, 2.67120227e-02, 3.45583968e-02, 3.28804627e-02,
       2.36634375e-03, 4.63459045e-02, 6.91344123e-03, -3.92080359e-02,
       -1.12635326e-02, -1.78785380e-02, -4.56267444e-04, 2.92979628e-02,
       -1.53803611e-02, 1.41494907e-02, 3.82763296e-02, 6.00274419e-03,
       -6.06920943e-03, -9.78453550e-04, -3.86139639e-02,
       -2.34275125e-02, 1.41923046e-02, -2.73094922e-02, 5.99102699e-04,
       3.65106203e-02, -3.02635133e-02, -4.59215231e-02, -8.53499584e-03,
       -2.73962524e-02, 3.00740288e-03, 5.06085381e-02, -1.69045888e-02,
       8.48981086e-03, 1.88075155e-02, -3.58539075e-02, -1.94320418e-02,
       -2.16749199e-02, -1.12669934e-02, -2.32146196e-02, 5.96770607e-02,
       -3.32414312e-03, 3.29853757e-03, 1.45167951e-02, -1.22609390e-02,
       -2.00002324e-02, -8.68458708e-04, -3.52391936e-02,
       -2.89059952e-02, 9.87604912e-03, -1.48877967e-02, 2.28833687e-02,
       1.76375415e-02, -3.00273206e-02, -2.04895586e-02, 2.33886670e-02,
       2.43329071e-03, -1.36386324e-02, 1.41274659e-02, -2.21941434e-02,
       1.69050321e-02, 1.04582515e-02, -1.88811515e-02, -9.07575525e-03,
       -1.72442999e-02, -4.96855890e-03, 6.98766345e-03, 6.64273873e-02,
       1.25307627e-02, 1.42386893e-03, -1.10522343e-03, -4.15013917e-03,
       -7.52951438e-03, 1.42161967e-02, -7.04979012e-03, 2.25249846e-02,
       6.32641166e-02, 3.06625590e-02, 6.26691943e-03, 2.03980692e-02,
       -4.69583040e-03, -7.45913852e-03, 4.22171690e-02, -1.37770001e-03,
       -1.55342033e-03, 7.94722140e-03, -2.71924268e-02, -8.71131569e-03,
       1.55810015e-02, -1.13832485e-02, -5.09181002e-04, 1.24281049e-02,
       -2.03554193e-03, -1.75289679e-02, 2.06852946e-02, -1.54180434e-02,
       -3.31289764e-03, 6.53785840e-03, -7.35955173e-03, -1.00928228e-02,
       -6.80953590e-03, -2.47468818e-02, 3.93702695e-03, 5.63697554e-02,
       1.77895185e-02, -2.57220455e-02, -3.87021936e-02, -2.22250782e-02,
       -2.18286626e-02, -6.79675117e-03, -2.35042330e-02,
       -1.82008334e-02, 1.71641652e-02, -4.66122571e-03, 9.16282646e-03,
       2.25229058e-02, -8.52403697e-04, 1.55127253e-02, -8.61878134e-03,
       -1.00279376e-02, -1.02517409e-02, 2.66832300e-02, 8.75965878e-03,
       5.14237909e-03, 5.06265275e-02, -1.28567079e-02, 4.87286225e-03,
       -1.19006112e-02, -6.09275140e-03, -1.35864588e-02, 2.18221825e-02,
       6.00497797e-03, -4.96466225e-03, -3.01191560e-03, -6.53042225e-04,
       1.18886242e-02, -1.68987699e-02, -4.07753838e-03, 2.82463687e-03,
       4.18386469e-03, 2.98973930e-04, -2.86367210e-03, 2.41289437e-02,
       -1.36756487e-02, 1.49228824e-02, -2.51486879e-02, 2.25135200e-02,
       -6.61414489e-03, 3.20884325e-02, 5.99702587e-03, -2.86603663e-02,
       1.16190361e-02, -2.13699583e-02, 7.48850778e-03, 8.12187139e-03,
       -2.65133940e-02, -4.38436866e-02, 1.79270472e-04, -9.52229544e-04,
       -9.80701763e-03, 1.22771943e-02, 6.34733168e-03, 1.22839315e-02,
       2.26658285e-02, 1.27177378e-02, -1.42971007e-02, 1.75959338e-02,
       -8.22875928e-03, -2.57155467e-02, -1.28846439e-02,
       -5.39065413e-02, 8.07598606e-03, 4.08312213e-03, 6.81748893e-03,
       -2.13972125e-02, -3.45256649e-06, -1.72677729e-02,
       -1.66069567e-02, -4.67121089e-03, -8.29797611e-03, 2.71902047e-02,
       -1.84266828e-02, 2.35756878e-02, 9.83873196e-03, 3.22986883e-03,
       2.01752316e-03, -3.32023902e-03, -1.83193926e-02, -6.12056488e-03,
       -3.46017145e-02, 1.04906503e-02, -2.80847289e-02, -1.55818220e-02,
       -1.80912041e-03, 3.30553949e-03, -8.40168167e-03, 6.44357409e-03,
       6.12884946e-03, 1.32941203e-02, -1.14261061e-02, 1.28691215e-02,
       2.49485597e-02, -1.01613775e-02, 1.51413609e-03, -7.51643209e-03,
       -2.11088564e-02, -2.01613014e-03, -2.05736496e-02,
       -6.05136855e-04, -1.79484095e-02, 2.05894317e-02, 4.81872028e-03,
       -1.61907286e-03, 7.07187736e-03, 2.30301600e-02, 1.38442926e-02,
       3.33209187e-02, 3.66390217e-03, 2.14288644e-02, 4.13294621e-02,
       1.56787373e-02, 7.28107104e-03, -2.34369319e-02, -6.96686134e-02,
       -4.45302203e-02, -9.81920399e-03, 2.95028482e-02, 1.05234824e-01,
       9.41964909e-02, 4.36565429e-02, 1.85803436e-02, 3.78750041e-02,
       3.33714671e-02, 4.70421696e-03, -1.60176940e-02, -8.18264857e-03,
       -3.58818062e-02, -6.91854977e-04, 1.59655567e-02, 3.05659119e-02,
       -4.55869026e-02, -8.15507993e-02, -5.58727048e-02,
       -4.29882370e-02, -3.08308601e-02, 8.71105120e-02, 5.94319068e-02,
       5.08561842e-02, 1.10755488e-03, 3.32040004e-02, 1.22648254e-02,
       2.20859405e-02, -1.96061041e-02, -2.95614209e-02, -1.69501808e-02,
       -3.38354032e-04, 4.03566323e-02, 3.40246484e-02, 3.69737707e-02,
       4.22912389e-02, 7.89795537e-03, 2.51840102e-03, 2.87209786e-02,
       1.76123343e-02, -2.66655516e-02, -1.21495025e-02, 2.86278985e-02,
       1.25723965e-02, 3.07908864e-03, -4.68901778e-03, -2.15904452e-02,
       2.75921747e-02, -3.40523086e-02, -1.43223628e-03, -2.68311594e-02,
       1.88823435e-02, 3.00265830e-02, 5.02452478e-02, 1.96255948e-02,
       -1.77841615e-02, 3.39242071e-02, 4.16174270e-02, 6.79655885e-03,
       1.16257286e-02, -1.57258229e-03, 1.05837360e-03, 1.03773512e-02,
       -9.69396264e-04, -5.18520363e-02, 4.59927842e-02, 2.53971014e-03,
       3.96181718e-02, 1.93147716e-04, -1.54996784e-02, 1.04646794e-02,
       -1.25602577e-02, 1.41029870e-02, -7.07332743e-04, -3.37302056e-03,
       2.96131410e-02, 1.89194977e-02, -2.59862486e-02, 2.26856954e-02,
       6.78688113e-04, -1.05417706e-02, 5.25646657e-03, -3.87310720e-04,
       3.30040120e-02, -8.51012021e-03, -4.14778478e-02, -4.30210419e-02,
       -1.30988229e-02, -3.74303609e-02, -1.81965027e-02, 5.45188505e-03,
       -1.82263590e-02, -4.73277271e-03, 5.84070943e-02, 7.42102340e-02,
       2.62260810e-03, -3.86770703e-02, -2.33835774e-03, -1.58850625e-02,
       1.45921325e-02, -9.44420882e-03, 1.02777884e-03, 7.70980213e-03,
       -1.43593196e-02, -4.85594273e-02, -2.01169290e-02,
       -3.07534374e-02, 2.30548382e-02, 2.29152422e-02, 2.91729383e-02,
       1.23168807e-03, -1.80682039e-03, -1.70002673e-02, -1.10913347e-02,
       -2.76279561e-02, -1.64032774e-03, -7.78991310e-03, 1.77360664e-03,
       -5.14606526e-03, -1.31766899e-02, -4.58550565e-02,
       -2.48629637e-02, -9.39236116e-03, -9.99155338e-04,
       -2.53322795e-02, 1.28953904e-02, 2.79470757e-02, 2.32057255e-02,
       -4.50888351e-02, 2.72928104e-02, 2.08665058e-02, 9.79322661e-03,
       -2.15873644e-02, -3.89333554e-02, -7.04160472e-03,
       -8.00896902e-03, -3.44595825e-03, -4.07468304e-02,
       -1.20852480e-03, 1.15797846e-02, 6.90365676e-03, -1.64697375e-02,
       -8.57425760e-03, 1.92764290e-02, 5.39261987e-03, 1.42234769e-02,
       -3.01940925e-03, 3.17548664e-04, -1.56066455e-02, 5.67066111e-03,
       -5.35305636e-03, -2.33134106e-02, 1.16862543e-02, 1.70809869e-03,
       6.74816873e-03, -1.15782302e-02, 1.80590898e-02, -1.87479090e-02,
       -1.46220410e-02, -4.22569104e-02, -1.09843258e-02, 2.55768131e-02,
       4.47392371e-03, 1.54064372e-02, -4.52682935e-02, 1.51960095e-02,
       2.76609082e-02, 3.08957510e-02, -8.79560970e-03, -9.99527331e-03,
       2.18758993e-02, 2.30680872e-03, 7.70276366e-03, -2.58862153e-02,
       1.51111279e-03, -7.48429727e-03, 1.35734370e-02, -9.35477670e-03,
       -9.83054377e-03, 6.31017052e-03, 3.06935906e-02, -1.48135945e-02,
       -2.13977266e-02, 3.50011775e-04, 5.11170365e-03, -1.19982781e-02,
       -1.94546189e-02, 1.72006512e-05, -1.11561436e-02, 1.96920130e-02,
       3.31249982e-02, -2.99517792e-02, -6.96273986e-03, 6.39466569e-03,
       -1.49535725e-03, -8.94978736e-03, 9.01149958e-03, 1.19461957e-02,
       4.27267626e-02, 8.29577260e-03, -5.26419375e-03, 4.73645702e-03,
       4.30499800e-02, 4.56768386e-02, 3.37647125e-02, -1.46536147e-02,
       -3.72238830e-02, 5.90292271e-03, 3.10956258e-02, 3.17785353e-03,
       1.76609121e-02, 1.94590371e-02, 2.86963880e-02, 2.81123687e-02,
       -9.54308454e-03, -1.97445657e-02, 1.74837490e-03, 1.79569367e-02,
       -1.58029329e-03, 1.40621569e-02, 1.28426371e-04, -7.88388643e-05,
       7.97277968e-03, 6.49565831e-04, -3.53017636e-02, -1.65942851e-02,
       2.74918824e-02, 2.96663051e-03, 2.28523519e-02, -8.23441334e-03,
       3.71393119e-03, 1.67152155e-02, -1.89050604e-02, -3.20437849e-02,
       -7.28855142e-03, 1.61836054e-02, 4.41457098e-03, -7.38176052e-04,
       -1.12833234e-03, 3.27443518e-02, 3.85046266e-02, -1.61228441e-02,
       -3.00018210e-02, 1.20927664e-02, 3.23601253e-02, -1.95690915e-02,
       -1.75778978e-02, -1.41767059e-02, 2.67401543e-02, 2.46368162e-02,
       3.81977623e-03, -1.36476913e-02, 1.91107159e-03, 3.54547128e-02,
       5.61829470e-02, -3.60197807e-03, -5.14886808e-03, -1.04763797e-02,
       6.30363030e-03, -1.01542538e-02, -2.87102889e-02, 7.32714869e-03,
       1.92268081e-02, 6.71749527e-04, -6.65292516e-03, -2.17093881e-02,
       -2.40983143e-02, 2.69519258e-03, -1.03116184e-02, -8.98722187e-03,
       3.29665877e-02, 3.64316590e-02, 3.45559418e-02, -4.29089554e-03,
       1.57119017e-02, 3.06594297e-02, -8.39833729e-03, -4.18493859e-02,
       -3.50821055e-02, 2.18789335e-02, 1.17696226e-02, -3.77787463e-02,
       8.77362583e-03, 5.71574643e-03, 1.74868852e-02, -2.60097273e-02,
       -9.09190904e-03, -6.17416855e-03, 2.68532615e-02, 4.76423539e-02,
       1.43719492e-02, 5.36305876e-03, 1.26205571e-02, 8.17766227e-03,
       -5.92212367e-04, 4.10153996e-03, 3.10549233e-02, 3.09841074e-02,
       1.74973924e-02, -1.55184381e-02, 6.27205987e-03, 8.74605216e-03,
       -2.82329880e-02, -2.30713580e-02, -2.28216611e-02,
       -8.43438879e-03, 1.68562047e-02, 9.06139519e-03, -2.56305374e-02,
       8.25896766e-03, 1.79615263e-02, 1.23568047e-02, 6.68035820e-04,
       -3.70676070e-02, -4.15657088e-03, 1.11858910e-02, -1.39676756e-03,
       -2.05745138e-02, 1.99614447e-02, 6.48076786e-03, -3.09964959e-02,
       -2.18443274e-02, -2.47809757e-02, 1.75168402e-02, -1.46990819e-02,
       -2.04577739e-03, -4.68512671e-03, -4.96190879e-03, 7.75676826e-03,
       3.63067836e-02, -1.37057183e-02, -1.72421578e-02, 3.17078317e-04,
       -5.41275777e-02, -2.02192622e-03, -7.33453257e-04,
       -1.74188707e-02, -2.79364306e-02, 5.03176115e-02, -8.39716848e-03,
       -2.46656183e-02, 3.29542868e-02, 7.37444405e-03, 7.89742172e-03,
       -3.53934779e-03, 9.58783086e-04, -2.20784489e-02, -2.26900317e-02,
       -3.19734178e-02, -6.92331186e-03, 3.73037830e-02, 1.21236602e-02,
       -1.54670922e-03, -2.01439112e-02, -4.25615013e-02,
       -3.58559862e-02, 7.08438223e-03, 1.36930086e-02, -2.28963997e-02,
       -2.97266198e-03, -2.16399375e-02, -1.07839722e-02, 1.04102129e-02,
       -1.10425251e-02, -4.96365828e-03, 4.90611419e-02, 1.63152982e-02,
       -9.51525569e-03, -9.93990526e-03, 3.11260461e-03, 1.22888600e-02,
       5.56713575e-03, -2.84489971e-02, 2.57419311e-02, 4.60460000e-02,
       1.74754057e-02, -1.79476906e-02, 4.69449647e-02, 2.88255443e-03,
       -1.51484702e-02, -3.12597565e-02, -4.16407101e-02,
       -2.25199312e-02, -3.66632640e-03, -4.28387858e-02, 4.20593977e-04,
       3.52254324e-02, 1.29914423e-02, 1.30239723e-03, -8.20899662e-03,
       -1.62462033e-02, 1.68774873e-02, 1.23818535e-02, 3.70922079e-03,
       -2.03823689e-02, -1.11939237e-02, -5.28745644e-04,
       -1.64881349e-02, -1.72087420e-02, -2.25984640e-02, 1.01844473e-02,
       8.23917538e-02, 1.98180452e-02, -3.34470011e-02, -8.24876968e-03,
       -2.35409234e-02, -1.83916036e-02, -9.36465990e-03, 6.19039359e-03,
       2.65764799e-02, 4.09351364e-02, -2.11831997e-03, -3.51984836e-02,
       2.51350366e-02, -1.27887903e-02, -1.30338538e-02, -8.33061989e-03,
       -1.78084057e-02, 2.59587821e-03, 9.36942548e-03, -2.31772736e-02,
       -3.37140858e-02, -2.10641953e-03, -1.91826764e-02,
       -2.41756607e-02, -3.58942524e-02, -1.54461013e-03, 7.32450420e-03,
       5.48742339e-03, -1.70211978e-02, -4.65005711e-02, -1.09873340e-03,
       -2.55464129e-02, -7.85967335e-03, -1.30996397e-02,
       -2.12776009e-02, 9.55371838e-03, 2.13736445e-02, -1.54112065e-02,
       9.48269013e-03, 3.05380039e-02, -2.76746936e-02, -1.69409309e-02,
       -3.17091867e-02, -2.51739146e-03, -2.11464483e-02, 2.67305374e-02,
       -7.81540014e-03, 2.22383300e-03, 2.18075737e-02, -2.04998832e-02,
       -2.42095664e-02, -2.64636911e-02, -2.61347964e-02,
       -4.33269003e-03, -2.15568324e-03, -2.19813995e-02, 1.94885419e-03,
       5.72853237e-02, -2.75579537e-03, -3.70939374e-02, -4.52377796e-02,
       -1.26087861e-02, -8.35811812e-03, 7.16243987e-04, -5.13487402e-03,
       -1.47139514e-02, -1.56960767e-02, -2.99554858e-02,
       -1.75031833e-02, -8.85255355e-03, -9.63183865e-03,
       -2.82357261e-02, 9.73341707e-03, -2.84529366e-02, 8.26785155e-03,
       7.89000187e-04, -4.91134729e-03, -3.00580431e-02, -3.45875472e-02,
       -1.85685779e-03, 6.05292479e-03, 1.73951369e-02, 1.60669927e-02,
       -1.75731275e-02, 4.82493173e-03, -3.46785970e-02, -4.04606685e-02,
       -2.36211028e-02, -2.92515494e-02, -2.09201593e-03, 3.62473982e-03,
       -2.79768649e-02, -2.83218622e-02, 2.03883797e-02, -1.54028283e-02,
       -3.39493752e-02, -5.10841645e-02, -2.13453453e-02, 2.69981977e-02,
       1.96238291e-02, 1.57786775e-02, 1.60377100e-02, 9.83883906e-03,
       1.01417676e-02, -4.37844433e-02, -2.48427819e-02, -2.29478367e-02,
       1.40966754e-03, 8.01128499e-06, 1.59020107e-02, 1.56513453e-02,
       3.26124839e-02, 1.71896219e-02, 3.51290517e-02, -8.08794238e-03,
       2.01456547e-02, 2.45676003e-02, 4.39082384e-02, 7.87502155e-04,
       -1.81423593e-02, 7.46042561e-03, 9.11021326e-03, -2.49952190e-02,
       -1.71759129e-02, -2.72877812e-02, 1.81447957e-02, 4.67369705e-03,
       -1.45970816e-02, -1.26557034e-02, 1.34990215e-02, 1.29729537e-02,
       2.66376697e-02, -2.81964894e-02, 1.42333834e-02, 3.68464924e-02,
       2.23944448e-02, -5.89965237e-03, -4.61175479e-02, -7.95726255e-02,
       -5.59850708e-02, -2.16252785e-02, 2.60168817e-02, 7.97683075e-02,
       5.68486303e-02, 5.61210811e-02, 5.57806483e-03, 4.84695993e-02,
       1.53333470e-02, 3.13513130e-02, -4.94402880e-03, -1.88280251e-02,
       -3.94467227e-02, -3.03517133e-02, 9.80396103e-03, 2.97412334e-04,
       -2.45826785e-02, -5.48354127e-02, -7.38526806e-02,
       -7.39490334e-03, 9.24777891e-03, 3.02788056e-02, 2.88866051e-02,
       4.58588004e-02, -4.84459568e-03, 2.35092510e-02, 2.25487128e-02,
       -5.39932260e-03, 1.23108560e-02, -1.21790301e-02, -4.27875891e-02,
       -1.75253246e-02, 3.62006389e-03, 2.00261772e-02, 5.33421449e-02,
       6.38786927e-02, 6.10775761e-02, 5.87206660e-03, 3.23858149e-02,
       1.97311360e-02, 2.31123697e-02, -1.55380880e-02, 1.84841286e-02,
       2.39655543e-02, 2.30284948e-02, 3.82437259e-02, -6.09430019e-03,
       2.12422814e-02, 2.75728218e-02, 5.48404120e-02, -2.97068078e-02,
       1.80812795e-02, 4.14257310e-02, 5.09541780e-02, 3.98751870e-02,
       -6.05889945e-04, 9.00755171e-03, -3.32476087e-02, -3.99698317e-03,
       -2.82925330e-02, 1.30906366e-02, 2.38352846e-02, 1.03137940e-02,
       3.39241251e-02, -3.06882779e-03, 4.58672270e-02, 1.74204018e-02,
       2.83370260e-02, -5.73937148e-02, -4.45843255e-03, 9.57917888e-03,
       -2.44582575e-02, -8.68018158e-03, -3.76911648e-02, 1.30515788e-02,
       7.68518746e-02, 8.78166556e-02, -1.42960232e-02, 5.71972691e-03,
       1.75617281e-02, -4.07279655e-02, -2.06584800e-02, -4.81539890e-02,
       2.58585196e-02, -8.29700567e-03, 9.26561654e-03, -2.71431971e-02,
       -2.75364937e-03, -1.47024300e-02, -4.93639857e-02,
       -1.58391949e-02, -1.61237456e-02, 4.07360122e-03, 7.32887313e-02,
       9.92076397e-02, -1.60337624e-03, -2.14892048e-02, -1.58730038e-02,
       -5.79328611e-02, -3.86132225e-02, -3.85087393e-02, 3.15817036e-02,
       1.06593091e-02, 5.43575175e-02, -2.14243587e-02, -2.19521783e-02,
       -9.97760147e-03, -2.27296120e-03, 1.12299807e-02, -2.19506752e-02,
       -2.31744219e-02, 1.43173905e-02, 2.67379768e-02, 3.17491665e-02,
       -1.78474411e-02, -6.49719033e-03, 2.25905376e-03, 4.16545849e-03,
       -3.19627523e-02, -3.10270581e-03, -6.20429777e-03, 1.83482654e-02,
       7.10032368e-03, -1.98589414e-02, -4.16415967e-02, -2.06754133e-02,
       -9.59110819e-03, -1.12013603e-02, -3.40144671e-02, 6.41004555e-03,
       1.82741228e-02, -8.68074130e-03, -2.30360441e-02, -2.40193475e-02,
       2.68001333e-02, -4.17796243e-03, -2.26514023e-02, -5.12326024e-02,
       -2.23976150e-02, 1.31311715e-02, 2.85252128e-02, -1.64753420e-03,
       -5.92688611e-03, 3.50365266e-02, 3.95093011e-05, -1.57393441e-02,
       -2.03183899e-03, -1.74790230e-02, -3.92241112e-04, 5.13628405e-03,
       -4.39798413e-03, 9.79219330e-04, 8.86825006e-03, -2.40676999e-02,
       -1.57151297e-02, -3.50118354e-02, -4.54109721e-02,
       -5.37614040e-02, -3.01683717e-03, 8.32150877e-03, 4.19068325e-04,
       5.80397062e-02, -3.15832533e-03, 3.69177898e-03, -1.43179838e-02,
       -1.87069122e-02, 2.33521592e-02, 3.19726281e-02, 9.03993938e-03,
       6.98191347e-03, 5.38359489e-03, -4.67929542e-02, -3.80506963e-02,
       -3.43550034e-02, -4.08831425e-02, 3.82809434e-03, 9.69610456e-03,
       2.51134322e-03, -7.23990146e-03, -5.49279992e-03, -1.35818648e-03,
       4.43312281e-04, -2.98156515e-02, -3.23625319e-02, -3.77000915e-03,
       3.51096764e-02, 1.26512367e-02, -3.56179550e-02, -2.43857466e-02,
       -5.23803011e-03, 1.70112345e-02, 1.39396973e-02, -2.52674781e-02,
       -1.09745935e-02, -1.41239418e-02, -1.35060046e-02, 2.81856004e-02,
       3.53183560e-02, -7.41888024e-03, -6.36647549e-03, -1.82438977e-02,
       -2.22993251e-02, 2.13964023e-02, 7.28034005e-02, 2.98558492e-02,
       -2.50179041e-02, 1.04036303e-02, 1.96653791e-03, 6.07406255e-03,
       -2.32816674e-02, -3.45709845e-02, 1.40733668e-03, 3.40775400e-02,
       -1.50804594e-02, -1.02463746e-02, -2.61767209e-03, 2.02965159e-02,
       5.17894700e-02, 4.52920683e-02, -1.66672934e-02, -1.19993491e-02,
       1.24873789e-02, 2.28165481e-02, -2.73271147e-02, -3.20749469e-02,
       -1.83363762e-02, 1.66017953e-02, 8.81943479e-03, -5.74324206e-02,
       -2.37267092e-02, -3.01560364e-03, -2.63785981e-02, 1.00989155e-02,
       8.67380761e-03, 1.81024391e-02, 2.29179263e-02, -1.54033042e-02,
       3.65029625e-03, 3.65362018e-02, 7.10725039e-02, 2.41056718e-02,
       -9.63606406e-03, -1.65221076e-02, -9.78598464e-03, 2.38106642e-02,
       -4.05379571e-02, -4.66943793e-02, 1.78914424e-03, 3.43616605e-02,
       4.82269144e-03, -1.10179270e-02, -2.22587530e-02, 1.56199103e-02,
       -4.42747632e-03, 3.38684432e-02, -6.93080574e-03, 2.38510058e-03,
       1.95776317e-02, -2.21363213e-02, -4.43143360e-02, -5.48671233e-03,
       2.23532245e-02, 2.80140224e-03, 2.05463953e-02, -1.20093906e-02,
       -1.37955658e-02, -1.14323199e-02, -4.28428948e-02,
       -1.15663989e-03, 1.33870100e-03, 2.17036959e-02, 5.36440536e-02,
       -9.81150661e-03, -6.33843336e-03, 6.00521173e-03, 3.33631933e-02,
       -8.81493650e-03, 1.39577435e-02, 2.17471719e-02, 1.18482467e-02,
       6.91595767e-03, -3.09212636e-02, 2.74901511e-03, 6.68541063e-03,
       1.19091372e-03, 1.25230812e-02, -2.59319935e-02, 2.55886652e-02,
       2.87340558e-03, 1.42936865e-02, 1.00524472e-02, -9.45569202e-03,
       -2.13263258e-02, -1.83790289e-02, -2.94394903e-02,
       -1.03048645e-02, 3.66071872e-02, -2.73616123e-03, -8.24304577e-03,
       -4.58328286e-03, 2.97310911e-02, 7.39780348e-03, -3.21435221e-02,
       -2.44981125e-02, 4.80998345e-02, 6.19383752e-02, 1.98218729e-02,
       -1.23022348e-02, -3.87487635e-02, -4.55415167e-04, 2.64648125e-02,
       8.90487619e-03, 4.42312984e-03, 3.92050259e-02, 5.96756861e-02,
       3.15755755e-02, 1.64405024e-03, 3.73534812e-03, -8.83727800e-03,
       4.18929936e-04, -1.78119764e-02, -7.61587219e-03, 2.46595368e-02,
       3.90523076e-02, -2.85352785e-02, -2.24655680e-02, -2.39710566e-02,
       -3.37163708e-03, -1.69702508e-02, -2.02050488e-02,
       -1.82692725e-02, -5.93958283e-03, 3.55594791e-02, -1.83610022e-02,
       -2.06059292e-02, -3.10321096e-02, -3.00293751e-02,
       -3.91979367e-02, -2.13205367e-02, -3.78696322e-02, 5.26056103e-02,
       4.63607796e-02, 1.96076534e-03, 5.32242376e-03, -3.87469889e-03,
       -3.89641821e-02, -1.94194950e-02, 3.95380659e-03, 1.73320286e-02,
       2.22121552e-02, 2.80234087e-02, -9.28176474e-03, -3.08721722e-03,
       -1.91725641e-02, -1.38481744e-02, -1.17298719e-02, 5.48297586e-03,
       -2.27355585e-03, -4.94888239e-03, 4.60644215e-02, -9.15148295e-03,
       -3.36670764e-02, -3.30268629e-02, -3.10082063e-02,
       -8.99474043e-03, 5.74362185e-03, -3.45569998e-02, -7.51492241e-03,
       4.52947617e-02, -1.63490046e-02, -1.00475904e-02, -4.56860242e-03,
       -2.75821779e-02, 1.25073968e-02, 1.26241632e-02, -6.51170090e-02,
       2.18531322e-02, 3.54208797e-02, -2.72557046e-02, -4.30434123e-02,
       -1.13046877e-02, 6.84005674e-04, 2.78372690e-03, 7.59398937e-03,
       -2.57447753e-02, 6.25202013e-03, 2.26422716e-02, -2.07902491e-02,
       -5.97612932e-03, -1.20015619e-02, -1.76755842e-02, 1.89129096e-02,
       1.14948479e-02, -2.78782155e-02, -9.57740750e-03, 4.83858027e-02,
       -1.79397855e-02, -8.18225741e-03, -1.13764936e-02,
       -1.68843027e-02, 6.98932447e-03, 2.72490475e-02, -1.71441771e-02,
       -3.36227007e-03, 9.97951999e-03, -7.24206166e-03, -5.20408014e-03,
       -3.51361930e-02, -1.66554600e-02, -5.54637145e-03,
       -1.17644435e-02, -2.05624457e-02, 2.35373876e-03, 1.84709169e-02,
       -9.75914672e-03, 1.11990760e-03, -2.92348079e-02, -2.69846711e-02,
       -9.38422512e-03, 3.32271270e-02, -2.85192970e-02, 1.52651854e-02,
       -2.13047322e-02, -2.71617398e-02, -6.96300808e-03,
       -3.03949416e-02, -1.51147563e-02, -3.02882027e-02, 2.38490086e-02,
       -1.80408719e-03, -7.78437883e-04, 5.29811298e-03, -5.59414783e-03,
       -1.08806612e-02, -8.16174876e-03, 2.13733409e-03, -7.62005709e-03,
       5.36004920e-03, -1.92756969e-02, 6.90104440e-03, 2.14048680e-02,
       -1.81619462e-03, -5.43819973e-03, -1.75277926e-02,
       -7.84495194e-03, 4.54599829e-03, -4.52749082e-04, -2.35463623e-02,
       -1.30124008e-02, -1.51500199e-02, -2.00077668e-02,
       -2.02791411e-02, -1.03498623e-02, 1.37713766e-02, -2.08345633e-02,
       2.09479779e-02, -1.72597151e-02, 4.23768396e-03, -1.06650628e-02,
       -5.52675163e-04, 2.35035680e-02, -2.38842145e-02, 7.39957532e-03,
       2.35067736e-02, 1.37708541e-02, -3.05590481e-02, -1.60641856e-02,
       2.25898195e-02, -2.43885461e-02, -1.68598201e-02, -4.07982897e-03,
       -1.54925799e-02, -2.61761318e-03, 1.96125489e-02, -2.14517377e-02,
       -1.91301142e-03, 4.91609722e-02, 9.80242714e-03, -1.40457824e-02,
       -7.75782205e-03, 8.45109299e-03, 4.34962511e-02, 3.95541489e-02,
       1.22278789e-02, 1.74775394e-03, -1.80127695e-02, -4.19881456e-02,
       1.54744100e-03, -1.33685572e-02, -2.09549982e-02, -1.79818142e-02,
       -2.39272229e-02, -4.05900031e-02, 1.38972560e-02, 3.19509581e-02,
       -3.40532814e-03, -1.06286639e-02, -3.52844484e-02,
       -6.95687532e-03, 7.42470240e-03, 1.17466378e-03, -1.03377469e-03,
       7.10864831e-03, 3.86061370e-02, 1.03133200e-02, 9.86844301e-03,
       2.53927503e-02, 6.05719863e-03, 5.21787517e-02, 2.59291138e-02,
       -5.01978397e-03, -1.29400995e-02, 7.40915723e-03, 1.50534464e-02,
       5.35388440e-02, 1.63314808e-02, 4.54500429e-02, 3.80895175e-02,
       1.27768880e-02, -2.28857826e-02, -8.92050844e-03, 4.68912814e-03,
       -1.41514875e-02, -4.46330532e-02, -3.31642083e-03,
       -1.49062108e-02, 2.45437361e-02, -8.99579190e-03, -1.77224670e-02,
       -2.90231407e-02, -6.29547378e-03, 1.51658487e-02, 2.09102267e-03,
       -9.06269997e-03, -9.11073107e-03, -2.63090450e-02,
       -2.32737176e-02, -2.18125340e-02, 1.89399011e-02, -4.48060827e-03,
       -3.59157920e-02, 9.11500119e-03, 2.60956418e-02, 2.09347308e-02,
       5.71292499e-03, 8.34632572e-03, -7.66877364e-03, 1.58186741e-02,
       6.89591188e-03, -3.01097501e-02, 3.07529420e-02, 8.62640981e-03,
       -1.64404958e-02, -2.79390328e-02, -2.34096441e-02,
       -1.62468536e-03, 5.48736490e-02, 1.29632019e-02, -1.76112317e-02,
       -3.78121133e-03, 2.14875005e-02, 3.49516384e-02, -2.98078284e-02,
       -1.69235356e-02, 3.96145768e-02, 4.99116853e-02, 2.39732917e-02,
       -6.68273307e-03, 1.03160599e-02, -1.68920204e-03, 5.78852408e-02,
       -2.98800077e-02, -2.52041277e-02, 2.85804551e-02, 3.49219553e-02,
       1.68929473e-02, -1.52141089e-02, 1.56373829e-02, 5.25742117e-03,
       2.19279923e-03, -1.11123631e-02, -1.45324031e-02, 1.25008654e-02,
       1.54305319e-03, -1.19796394e-04, 4.21921909e-03, -1.42814834e-02,
       -1.10332025e-02, 7.80750625e-03, -3.82702309e-03, -7.08626658e-02,
       -4.16057296e-02, 4.93493117e-02, 1.63726993e-02, -1.60714053e-02,
       3.06015424e-02, 2.02103052e-02, 3.04186139e-02, -3.62954997e-02,
       -2.94764172e-02, 4.70805960e-03, 4.76012863e-02, 8.14239867e-03,
       -4.13348665e-03, 2.20474340e-02, 4.67340183e-03, 4.05394398e-02,
       -8.31777416e-03, -8.51871353e-03, 6.43061416e-04, 1.38607891e-02,
       -2.22721100e-02, -1.83684956e-02, -1.03810374e-02, 2.19987500e-02,
       9.01778936e-02, 9.24969018e-02, -5.57932304e-03, 1.67625584e-02,
       -1.75124370e-02, -4.22492363e-02, -3.61651033e-02,
       -4.40009348e-02, -1.14123253e-02, -1.61748342e-02, 5.67151122e-02,
       -6.46641804e-03, -6.30579935e-03, -2.68754200e-03,
       -1.28091434e-02, -1.58061646e-02, 1.85771496e-03, -2.54242383e-02,
       5.20476699e-02, 6.53380454e-02, 3.65602374e-02, -1.82845965e-02,
       -3.82542126e-02, -1.01198712e-02, -1.20851677e-03,
       -1.25005580e-02, 7.85936695e-03, -1.77925229e-02, 4.92174923e-02,
       3.22785825e-02, -6.47388026e-03, -2.16240119e-02, -1.41240899e-02,
       -1.46811167e-02, -1.51609154e-02, -3.46582383e-02,
       -3.20824943e-02, 2.82773953e-02, 3.69729921e-02, 6.00340310e-03,
       -3.59420143e-02, -9.96875670e-03, -2.43553072e-02,
       -1.20805353e-02, -5.65066002e-03, -2.97571085e-02,
       -2.65428168e-03, 2.78354343e-02, 1.46492319e-02, -4.34809625e-02,
       -2.25042161e-02, -1.12452740e-02, -6.00805692e-03,
       -1.19115021e-02, -4.19644155e-02, 3.89130451e-02, 9.30345356e-02,
       2.47200932e-02, -3.29181962e-02, -4.74959053e-02, -2.51735877e-02,
       5.88399963e-03, -6.78479113e-03, -3.62991765e-02, -9.26999748e-03,
       7.23060966e-02, 9.22029652e-03, -2.58043129e-02, 1.46123394e-02,
       1.06538441e-02, 1.29763475e-02, 9.71248187e-03, -1.78466719e-02,
       1.10545773e-02, 4.01421003e-02, 7.99320079e-03, -4.25313972e-03,
       -7.32136285e-03, 1.06572208e-03, 7.21143000e-03, 2.77893152e-02,
       -1.11053828e-02, 6.51200302e-03, 3.21235950e-03, 5.96011698e-04,
       -1.47607243e-02, -2.04247627e-02, -2.69143144e-03,
       -2.20174273e-03, -6.70162449e-03, -4.15746160e-02, 2.12946925e-02,
       5.41006811e-02, 2.65205298e-02, -2.19036844e-02, -3.88301685e-02,
       -1.73597578e-02, -1.07488381e-02, -4.07548295e-03,
       -2.79766344e-03, -3.39243351e-03, 2.55542677e-02, -1.09055983e-02,
       -1.67066101e-02, -2.09959727e-02, -1.44807650e-02, 4.73480718e-03,
       2.08596811e-02, -2.91986559e-02, -3.88041954e-03, 2.37724204e-02,
       -1.95150636e-02, -4.22629528e-02, -2.39159744e-02,
       -2.59493552e-02, -1.77471433e-02, -1.88567175e-03,
       -2.06497088e-02, 3.23900417e-03, 1.75312683e-02, -8.76722950e-03,
       -2.52892114e-02, -2.39182897e-02, -2.21952219e-02,
       -1.11543504e-03, 1.55024594e-02, 4.09245305e-03, -1.33323972e-03,
       2.75784004e-02, -1.02783078e-02, -3.25248763e-02, -1.46754123e-02,
       9.65634175e-03, 4.13063355e-02, -1.30029144e-02, -1.41403889e-02,
       -2.87321918e-02, 1.21636977e-02, 8.94935988e-03, -4.08292934e-02,
       -1.54739358e-02, -1.36761256e-02, -2.13560965e-02, 8.69765598e-03,
       9.81095582e-05, 2.83765532e-02, 3.19799483e-02, 5.10554621e-03,
       -2.78097894e-02, -3.40346284e-02, -2.85795256e-02,
       -2.67968327e-02, -1.97190419e-02, -6.23380058e-02, 9.56896576e-04,
       2.87657920e-02, 9.69524961e-03, -2.68209614e-02, 1.29083153e-02,
       2.87207048e-02, 1.08918827e-02, 1.13718556e-02, -1.16373161e-02,
       1.24994246e-02, 4.70619984e-02, 1.93126146e-02, -2.67065391e-02,
       2.46144906e-02, 7.36794155e-03, -4.65082191e-02, -2.23095831e-03,
       -4.42490876e-02, 7.20277661e-03, 3.53442989e-02, 2.13249438e-02,
       -2.28133537e-02, -1.66293292e-03, -1.00599171e-03, 1.45127289e-02,
       -6.49493374e-03, -4.33000885e-02, -3.71536775e-03, 3.91467176e-02,
       2.13501025e-02, -8.40143766e-03, 1.38230873e-02, -1.53122225e-03,
       -1.99025702e-02, 2.10445598e-02, -2.64256224e-02, -2.72748317e-03,
       2.72568893e-02, 1.13430833e-02, -1.22483214e-03, 5.30838147e-02,
       1.04664834e-02, -1.25608742e-02, -1.49139510e-02, -4.94146459e-02,
       -8.74060206e-03, 4.11746651e-02, 3.20503376e-02, -9.92475398e-05,
       1.73327792e-02, 1.59783103e-02, -1.70588661e-02, 3.28975450e-03,
       -4.03421260e-02, 1.49628911e-02, 3.74255106e-02, 2.94490792e-02,
       4.16749977e-02, 4.53245044e-02, 8.55472591e-03, -1.69433299e-02,
       -1.25468150e-02, -5.55299548e-03, 5.74427890e-03, 2.39111856e-02,
       2.05006097e-02, 2.79782712e-02, 2.05162652e-02, -1.50289712e-02,
       2.22809650e-02, 2.10737661e-02, -1.16458326e-03, -2.79404745e-02,
       -2.43613832e-02, -6.67410204e-03, 3.38310674e-02, 2.06550043e-02,
       -2.27717892e-03, -5.97969454e-04, -2.31455755e-03,
       -2.02080347e-02, -2.56705703e-03, 5.40879369e-03, 2.56713144e-02,
       2.38134917e-02, -2.33036597e-04, -1.45523027e-02, 5.70796244e-02,
       4.39467914e-02, -8.25899281e-03, -3.88755724e-02, -4.39541936e-02,
       1.99876837e-02, 2.72014271e-02, 1.14171412e-02, -1.12661738e-02,
       1.08471597e-02, 2.39170957e-02, 2.39506061e-03, -2.48940513e-02,
       -3.00611858e-03, -1.47141714e-03, 1.33123882e-02, 2.43431628e-02,
       -1.98882390e-02, 1.66248195e-02, 1.52458744e-02, 1.52886827e-02,
       2.10456434e-03, -7.38368835e-03, -2.05849186e-02, 8.85757338e-03,
       -1.15588307e-03, -2.46920493e-02, 3.91874649e-02, 1.09881144e-02,
       8.87028407e-03, -4.11732681e-02, -2.25279201e-02, 3.97909712e-03,
       -3.01073100e-02, -1.06020160e-02, -3.43042426e-02, 3.11779864e-02,
       1.29480241e-02, 4.76644859e-02, -2.44906102e-03, -2.61872425e-03,
       -3.21412235e-02, 1.12060560e-02, 3.47996987e-02, -2.38734726e-02,
       -1.14892088e-02, 3.05686872e-02, 1.56252850e-02, -1.80021059e-02,
       3.21587315e-03, 5.36244689e-03, -3.90385510e-03, 1.08987540e-02,
       -2.82325614e-02, 5.01676579e-04, 8.21998063e-03, 2.15855110e-02,
       -3.30374693e-03, 1.43669667e-02, -5.34535758e-03, -2.14550048e-02,
       -2.51772869e-02, -3.96083668e-02, 3.35237943e-02, -6.88319234e-03,
       1.52385924e-02, -3.18153948e-02, -1.63366143e-02, -3.10607273e-02,
       -2.42183693e-02, -1.12349968e-02, -1.32515300e-02, 1.68589521e-02,
       -1.58310663e-02, 2.10722759e-02, -2.98020858e-02, -5.37632545e-03,
       -1.38489492e-02, -1.98426377e-02, 1.22171035e-02, 9.70784388e-03,
       9.28542856e-03, -1.82816945e-03, -9.05569235e-04, 4.42404021e-03,
       5.91326132e-02, 7.81584810e-03, -8.21989588e-03, 2.88927986e-04,
       -1.73324421e-02, 2.32992880e-02, 8.01143702e-03, -9.15063825e-03,
       -4.22675256e-03, 6.18107095e-02, 2.80072982e-03, -3.31961811e-02,
       -4.31319186e-03, -1.45702027e-02, 1.09001948e-02, 4.37707221e-03,
       -4.42875223e-03, -1.26979209e-03, 1.40842926e-02, -3.62221561e-02,
       -1.78344194e-02, -1.79661456e-02, -4.76143099e-02, 3.72671448e-02,
       2.90534217e-02, -9.31097660e-03, -2.84541631e-03, 3.96077409e-02,
       -2.87240911e-02, -2.16704775e-02, -7.15195155e-03,
       -2.29946729e-02, -4.97738738e-03, 5.92742255e-03, 5.31914458e-03,
       -1.46675510e-02, 5.20740747e-02, 2.83539984e-02, 8.48261546e-03,
       -2.66668499e-02, -1.25281969e-02, 8.28708336e-03, -2.76301317e-02,
       -5.22514991e-03, -4.09377227e-03, 4.41752858e-02, 2.46872660e-02,
       -1.95957273e-02, -2.19573360e-02, -3.29753384e-02, 3.39132696e-02,
       2.77621057e-02, 4.99919383e-03, -4.06354181e-02, 1.21567715e-02,
       -2.35654823e-02, -3.17816474e-02, -4.07861322e-02,
       -1.60081349e-02, 3.31047103e-02, -1.23253940e-02, -3.21901496e-03,
       -2.94073801e-02, 1.44946240e-02, -1.29422415e-02, 1.69636011e-02,
       -1.16776710e-03, -8.92071519e-03, 3.12106218e-02, 4.09217328e-02,
       9.18191765e-03, -1.10861976e-02, 2.52533816e-02, 2.72292383e-02,
       3.24261309e-05, 2.48911306e-02, 6.59880973e-03, 2.14783661e-02,
       -2.13174522e-02, 2.85656210e-02, 9.83984768e-03, 1.13638993e-02,
       8.87976587e-03, -3.75412963e-02, -3.43961418e-02, 5.87222772e-03,
       3.35719101e-02, 2.39885263e-02, 1.42025780e-02, -1.80609860e-02,
       -1.08919409e-03, -5.65865543e-03, -4.24072333e-02,
       -1.57997804e-03, 2.84451582e-02, -1.53109827e-03, -3.67361382e-02,
       3.45609970e-02, -1.27818985e-02, -4.19756351e-03, -3.37849110e-02,
       7.66223203e-03, 1.79590452e-02, 1.41468914e-02, 1.78794004e-02,
       4.42040451e-02, 4.91511002e-02, 1.68193821e-02, 1.64325014e-02,
       1.09326532e-02, -6.83945976e-03, -6.66566705e-03, 4.60071154e-02,
       3.92529070e-02, 3.60085666e-02, 4.97582108e-02, 1.59011539e-02,
       1.93162356e-02, 1.24566751e-02, -1.80797074e-02, -4.33681952e-03,
       2.26256885e-02, -6.52596913e-03, 1.25522800e-02, 1.19911544e-02,
       -2.72523295e-02, -1.58295054e-02, -2.84348521e-02,
       -8.38121325e-02, -3.98374721e-02, 1.51126450e-02, 1.51346978e-02,
       -9.30731464e-03, -1.23657649e-02, -2.47995351e-02,
       -2.77405418e-02, -6.64795563e-02, -4.65326846e-01 ]
